100 30
w_0_3 8.73899 6.99807 7.86359 6.09353 -5.29259 -3.71697 6.73275 -5.55538 -1.83447 2.28218 -8.45514 0.82164 -8.63632 -3.43637 6.33640 5.80452 7.85291 4.18174 -5.88258 9.51122 -0.47186 6.52057 8.41756 7.11606 -1.44215 3.35056 -2.69939 4.32623 0.49930 -7.62416
w_1_2 -6.58588 -4.46856 6.83938 -4.42883 2.83091 -4.81432 -5.48995 -0.01591 -6.25853 -3.99543 0.92903 -4.45644 4.94719 3.76522 3.84124 -7.36389 9.36862 0.60907 6.21456 -4.49610 2.66267 9.35019 9.81015 -7.60709 -0.95938 -3.59510 -9.82134 2.05448 -11.77415 1.41099
w_2_0 -9.85756 2.73495 -7.22462 -5.71606 -3.96740 7.76855 3.61325 -0.18732 -10.50869 4.78550 -0.24860 7.09115 -4.31737 -9.92976 6.51818 -4.91838 -1.10045 -4.48706 -8.63480 6.02612 6.39870 10.43484 -2.57592 8.16015 -2.56987 3.24750 -8.65982 9.38665 -4.89272 -5.71166
w_3_1 -9.73339 0.30211 0.00440 2.23920 6.72662 6.65020 7.36681 -0.21582 -8.87457 -6.97844 9.45935 -1.83002 8.45805 3.11977 1.42557 -4.44851 7.91496 -4.95301 -2.36501 10.98945 3.35319 -1.48289 1.32608 0.65531 5.34989 -3.46058 4.03922 5.73556 1.67357 1.16033
w_4_0 -7.07227 2.39927 -7.33812 -5.02719 -3.91920 7.25889 4.08503 -0.29848 -8.53247 5.74323 -2.62077 8.93778 -3.02479 -10.56558 8.35265 -4.82728 -2.98252 -3.16312 -8.93727 7.76031 6.00760 8.43968 -0.40458 9.12861 -0.30880 4.38269 -8.48185 7.52451 -3.52866 -2.96519
w_5_3 7.09552 8.00655 11.52053 5.23665 -6.60630 -2.08999 6.92493 -4.47219 -1.23041 1.45715 -8.45620 -0.77525 -10.57060 -3.95856 6.41529 3.59605 8.96223 6.07551 -5.54786 7.56702 2.67435 5.30746 8.51656 6.00484 0.59391 1.48489 -1.09979 3.36329 -1.08959 -6.78751
w_6_1 -8.40641 0.13657 -0.50690 3.59356 8.75643 8.27837 7.16491 1.61121 -8.22660 -6.85149 8.67419 -2.65652 7.11423 1.44118 4.46044 -3.75684 7.97331 -7.45602 -1.35331 10.20144 3.72105 -1.05945 0.95788 -4.51308 4.70056 -1.25914 2.21808 3.68548 2.25014 -0.00459
w_7_1 -11.58531 1.25896 -0.96628 3.95138 7.70963 9.34306 7.82900 0.96660 -8.79335 -5.98828 7.73325 -1.27328 6.46707 1.87550 2.89046 -3.93140 7.69946 -5.15020 -0.29204 10.92248 3.62838 -3.19726 0.57853 -2.98823 5.70719 -2.48789 2.31554 5.16049 2.49477 0.34643
w_8_2 -5.96412 -5.96154 6.26567 -4.49580 3.35280 -2.57171 -9.20439 -1.13775 -5.55384 -6.27404 3.40604 -5.62618 5.15457 4.85625 4.52910 -9.42191 8.78659 -0.59404 8.43959 -5.88457 3.17249 8.77041 10.26442 -10.24223 0.12410 -3.14466 -9.10053 -0.52317 -9.65571 0.21945
w_9_1 -9.94742 1.03973 -0.25359 3.04362 10.50330 9.92607 7.91429 -0.42772 -8.34870 -5.47249 8.97343 -3.11780 7.76658 3.10539 2.14248 -4.70701 7.11594 -6.13930 -1.27087 11.88169 6.40570 -2.68858 1.21244 -0.91157 5.50556 -2.38232 2.83738 5.52575 3.38256 0.13845
w_10_2 -7.52687 -7.03485 7.00534 -4.61812 1.99203 -4.65406 -7.55480 -0.76938 -3.40071 -6.44282 3.09095 -6.06754 5.49810 4.33123 4.40298 -9.14254 8.73951 -0.11598 8.41050 -5.33798 0.06845 8.82158 10.38531 -10.91193 -1.24432 -3.75132 -8.20598 1.46445 -9.81124 2.52851
w_11_0 -5.19404 0.84787 -8.36045 -3.82504 -4.59949 5.81072 5.43718 0.54897 -9.66987 4.16614 -1.51966 4.90784 -3.13719 -8.10925 7.28117 -6.13113 -1.79195 -2.63410 -5.84930 8.37326 7.99169 9.47235 -1.05996 8.74335 -0.75295 4.56519 -7.74323 7.27728 -5.57270 -4.25241
w_12_3 6.76760 8.93032 9.16217 6.92751 -9.44677 -3.48511 5.78318 -4.41342 -1.38533 2.49573 -7.82443 0.44971 -10.75982 -2.34866 4.35068 5.23855 8.39062 6.05025 -5.51038 7.51801 0.25700 7.94885 8.78093 7.62687 -2.26046 -0.29321 0.42942 4.47526 -0.00438 -7.24979
w_13_1 -11.07549 0.85841 -0.41439 1.51197 10.59324 8.78659 7.28588 0.76775 -7.65907 -8.19468 8.61226 -1.47601 5.78715 2.92760 3.15778 -4.08560 6.62148 -4.76091 -1.37272 10.47356 7.01075 -1.29734 2.19579 -3.28728 5.14843 0.34993 4.16886 3.72402 0.61422 0.34313
w_14_1 -9.48160 -1.10087 -0.26718 2.22527 8.72902 8.49948 7.63436 -0.08869 -8.44347 -7.44982 9.37892 -3.56339 7.48064 4.03473 3.56212 -4.06337 9.17741 -7.11080 -2.24032 9.07339 2.88005 -0.61961 2.00644 -1.82928 5.70270 -2.23398 2.98174 4.63612 2.54202 1.74661
w_15_0 -7.40261 2.92044 -7.52346 -4.13504 -1.49713 6.38212 4.02412 2.25549 -9.95863 3.45067 -1.49250 6.46728 -5.56526 -8.31528 7.69619 -5.72860 -1.29517 -3.94334 -7.88602 4.36963 6.53781 9.50311 -3.42765 8.84497 -1.68771 3.44439 -9.64778 6.63062 -5.15927 -5.75982
w_16_2 -6.35844 -4.32379 4.79887 -4.48288 1.63157 -4.15525 -7.43503 -1.86751 -5.38642 -3.71589 2.93368 -4.87947 4.18856 4.89487 3.17309 -7.05311 6.90338 0.12143 7.70937 -5.56806 1.42792 7.77881 8.36273 -9.26818 -0.69375 -3.53997 -8.24051 2.90554 -8.63563 2.34823
w_17_2 -4.54372 -5.12639 4.52062 -2.16766 4.70395 -3.25809 -7.22458 -2.91445 -6.35742 -6.55457 -0.72032 -4.80301 6.53663 4.97054 3.89083 -8.29669 10.16102 -0.17820 8.93593 -6.07424 2.41833 8.00620 10.60902 -8.80392 -0.36992 -3.39486 -9.42245 1.31483 -9.54045 3.72951
w_18_2 -8.30451 -4.42147 4.80511 -4.55815 2.33989 -3.07671 -7.19494 -2.42849 -2.97135 -5.31468 2.65117 -4.50522 4.63085 3.96844 3.95239 -8.75708 9.05676 -0.78955 8.28556 -6.08680 1.25490 8.11090 10.64418 -9.98867 -1.49755 -3.93947 -8.50660 0.84199 -8.51660 2.41689
w_19_3 5.66077 6.88927 9.82391 4.94410 -6.32651 -1.10131 6.17659 -5.94529 -0.41516 2.88376 -5.08125 -2.82667 -10.00198 -3.98735 5.19916 4.09311 6.33537 6.35724 -5.75303 8.88701 -1.25755 5.41291 9.07577 5.08177 -0.66085 1.62751 -2.51571 1.95808 0.75121 -5.49367
w_20_3 7.09442 8.09565 8.77043 5.89305 -7.68077 -2.07731 9.24007 -5.27698 -0.47447 2.58328 -7.60035 -1.17520 -8.71085 -2.99477 6.41881 4.67379 9.13263 4.87109 -5.23970 6.07353 1.75679 7.60918 9.72914 5.47173 -2.78675 0.74922 0.52235 3.37466 0.40814 -7.42195
w_21_0 -8.27464 1.05955 -5.51798 -6.23212 -4.05948 7.39171 2.84512 0.91069 -9.66695 4.83781 -1.29269 6.37795 -4.12163 -8.89884 7.35242 -6.14271 -2.44583 -4.34808 -7.95822 7.80945 7.58730 10.16257 -2.20093 8.57599 0.16327 3.57805 -10.43713 7.75554 -4.49799 -4.88304
w_22_2 -5.76144 -6.22333 6.28238 -3.46961 4.31935 -4.58785 -7.24343 -1.30628 -2.31438 -3.68097 4.50765 -6.17834 5.73739 2.63755 3.71493 -7.16779 9.69732 -0.72774 7.59962 -6.20626 2.33804 8.09910 11.24876 -11.01382 -0.93266 -3.71512 -8.58134 0.07133 -9.02605 4.20275
w_23_2 -5.37186 -6.27017 6.36125 -2.92984 0.73749 -2.15047 -8.05958 0.13010 -3.29999 -6.15885 0.87728 -3.55930 3.54580 3.75547 3.13823 -7.49587 8.54146 1.66031 7.95733 -5.34780 2.65353 8.82198 11.47502 -9.26409 1.01278 -4.38845 -7.69777 0.90483 -10.06487 0.87026
w_24_0 -8.86261 2.75027 -7.79482 -4.90085 -4.43456 6.96031 3.41874 0.63486 -7.82812 5.26078 -1.89732 4.18442 -4.53339 -7.62616 6.64300 -5.77777 -4.92595 -4.92370 -10.55079 6.96862 6.82855 9.32349 -2.72942 10.10890 -2.31764 3.32037 -7.75361 7.76258 -4.13073 -5.57898
w_25_1 -7.89973 1.28814 -1.88555 1.22673 8.72663 9.24377 9.85619 0.44921 -8.48641 -5.67538 10.43192 -3.44204 6.92437 4.09302 3.51046 -4.91039 8.30422 -4.42407 -4.29406 10.52224 6.24339 -1.75305 0.48804 -2.87509 4.49044 -1.39579 2.48430 4.72671 3.61977 2.04620
w_26_3 8.03353 7.33191 8.55873 5.59963 -6.03084 -2.13578 8.60150 -3.70960 -2.21602 1.66627 -5.48427 -1.11846 -9.09603 -5.20804 5.04601 3.87444 8.51170 5.34181 -4.99811 6.68854 -0.42688 6.85409 6.59551 6.35623 -3.51607 2.69354 -2.79090 5.01861 -0.47595 -6.46858
w_27_2 -5.18489 -5.07920 4.85657 -3.54701 2.89255 -3.28115 -4.67100 -1.80777 -3.71550 -6.74501 3.05800 -6.40476 3.59027 5.04233 2.67940 -7.12822 7.93416 -0.16620 9.35006 -5.87957 0.92394 10.09831 8.97604 -8.40157 0.92950 -4.13935 -9.44561 1.43807 -11.06154 3.19431
w_28_2 -6.76809 -6.33958 6.68051 -4.97459 4.36626 -4.56214 -7.16128 -2.92636 -2.78976 -4.41800 1.44474 -5.23605 6.17360 4.82272 4.23135 -7.17167 9.31336 0.23160 8.18818 -7.87108 1.19823 6.43008 10.68764 -10.09015 0.73217 -5.97986 -9.43177 0.92745 -9.07218 2.57388
w_29_1 -9.40518 1.13949 -0.53844 3.54935 9.98219 7.06334 6.72791 1.51255 -8.47174 -5.73393 9.34515 0.56780 6.98052 4.02073 3.33998 -4.58163 8.16270 -6.23289 -2.20481 9.80189 5.23687 -0.09218 -0.01584 -0.85694 5.03894 -1.08207 2.49603 3.03687 2.08546 0.02283
w_30_0 -7.86229 2.58033 -7.61339 -4.10648 -3.39129 6.72391 3.53366 1.09974 -7.77378 3.30819 -1.29863 4.39332 -7.11777 -10.48131 7.79780 -4.99743 -0.82940 -5.56730 -9.38660 5.78036 5.97606 8.66340 -3.15068 9.75464 -1.37030 3.06146 -8.75438 8.39916 -3.52251 -3.79407
w_31_1 -9.70714 1.68500 -0.51452 2.54545 8.61488 7.86565 7.55108 2.38818 -7.34490 -4.88918 10.48001 -3.01438 9.09722 3.35228 3.10584 -5.10651 7.88391 -7.08358 -0.98556 9.83679 4.97772 -1.79104 1.20942 -1.89512 4.16742 -3.33616 3.48795 5.25575 1.77877 2.73186
w_32_1 -9.97991 -0.09886 -0.38831 3.16569 8.53797 9.15569 9.31680 1.06504 -9.09190 -6.18312 10.06896 -2.42800 6.51476 2.40123 1.69901 -5.08484 8.49828 -4.80058 -3.24772 10.41118 5.41034 -0.42129 2.27079 -2.98077 3.48891 -1.02353 4.42320 2.39840 1.32804 1.65782
w_33_1 -10.87065 -0.53621 0.43995 3.30537 10.79828 7.27041 7.65644 2.24427 -7.00659 -5.59509 9.68758 -3.70087 8.45403 1.73296 1.90215 -4.16854 8.12400 -6.30165 -1.93538 9.76722 5.26194 -0.62022 1.38034 -1.31097 4.81238 -1.71247 3.85708 3.95088 2.06912 1.82319
w_34_1 -10.52619 -0.25997 0.07714 3.22223 10.66377 8.25499 8.42687 0.25347 -9.38264 -6.57601 9.85991 -1.54488 8.30015 4.08012 2.43018 -2.14397 9.56306 -6.26493 -1.98291 11.38842 6.69395 0.70225 -0.00632 -1.29738 6.18671 -1.97556 5.07652 4.12142 2.76134 0.39192
w_35_1 -7.61916 2.74190 -1.14736 2.12401 11.09908 9.38836 7.02871 1.18452 -6.27726 -3.68701 8.16590 -2.40473 9.06333 2.42268 2.51097 -4.60123 7.27330 -6.59834 -2.84157 9.61080 4.25462 -1.80391 -0.32440 -0.03639 5.10052 -1.68668 4.37578 3.14730 2.24079 2.34051
w_36_2 -5.66648 -6.43033 6.21239 -3.20340 2.17796 -5.75484 -7.00207 -0.03283 -4.92354 -6.49809 1.34346 -5.97107 5.13965 4.47322 2.63903 -5.97548 7.79659 -0.06067 8.02094 -5.49073 1.28626 8.75160 9.84829 -8.09431 -0.48239 -3.19777 -9.68427 1.76221 -9.67943 2.52679
w_37_0 -7.64221 2.51241 -7.59396 -5.89747 -3.29076 7.65607 3.84551 0.74771 -10.07776 5.17423 -1.70000 5.12190 -3.96275 -8.10247 7.29111 -6.83366 -3.11435 -3.24362 -8.99219 6.59039 5.84989 10.25256 -4.18425 9.04209 -0.72964 4.00643 -7.86775 6.72244 -4.45242 -5.49844
w_38_0 -8.83748 2.09826 -5.46149 -4.33125 -5.06478 8.44339 3.98612 0.70809 -10.53324 6.28858 -3.07122 5.70787 -3.23167 -8.54336 8.06091 -5.57787 -2.05348 -3.54867 -7.12531 6.90636 7.64467 8.15207 -1.76069 9.45678 -0.94878 4.60135 -6.83480 9.00833 -3.86881 -4.50311
w_39_0 -7.53941 1.64335 -6.02117 -6.50323 -4.22476 6.18791 3.49319 2.20990 -9.39674 4.48263 -0.84422 8.36012 -4.51203 -10.79340 6.07925 -5.02962 -1.52023 -5.80777 -7.94753 7.50954 5.63726 11.06871 -2.11480 9.65357 -1.62668 5.10953 -5.99142 8.14467 -2.50681 -5.84889
w_40_0 -7.36202 3.07857 -5.50225 -5.09871 -4.46490 5.63213 2.30017 0.87632 -7.63578 4.21874 -0.23095 6.12461 -6.00742 -9.69112 6.96974 -5.55055 -2.26703 -3.66623 -6.88395 7.95383 6.82963 7.38728 -2.02524 9.33580 -0.10907 3.39369 -9.65270 7.86254 -3.76672 -6.03562
w_41_3 8.66969 9.68981 9.63198 2.81196 -6.29824 -1.18900 9.08705 -4.12693 -2.49798 1.58152 -8.49136 -0.59109 -9.33027 -4.21969 4.51114 6.28400 11.39453 4.43705 -6.07956 7.93708 -0.77308 5.58694 7.86372 6.49358 -3.64134 1.96192 -1.58864 3.80718 0.71609 -6.79957
w_42_3 7.36970 8.57415 9.95414 4.59534 -7.68926 -1.99171 10.62652 -5.79646 0.37828 2.65532 -8.02593 -0.47453 -9.84181 -5.33331 5.00426 4.65928 6.56772 6.46727 -5.65026 9.08658 -0.11798 7.16598 8.46747 5.75933 -0.91342 1.22696 -2.22579 3.82296 0.45909 -6.11063
w_43_2 -6.62597 -6.99803 5.55800 -3.29749 4.81333 -3.75051 -8.43811 -3.31898 -4.05729 -7.09614 1.96166 -4.48453 3.03746 3.95295 3.85421 -7.07075 9.43343 -0.92202 9.58940 -7.03225 2.23784 9.36441 10.54856 -9.20577 1.05555 -4.64269 -9.79732 3.18035 -9.22478 1.04170
w_44_2 -5.12986 -5.51199 6.63182 -3.30248 2.15381 -3.41275 -5.83579 -1.05106 -3.54213 -6.06608 2.15913 -5.97920 5.67248 3.21879 3.09405 -8.38842 10.04930 -1.34775 6.84138 -6.27517 2.61765 11.89157 9.40962 -8.90114 -1.21731 -6.40833 -8.75232 -0.24934 -9.09362 2.97496
w_45_2 -5.02157 -6.27708 5.64374 -2.92236 2.15529 -4.54714 -9.05777 -2.74340 -4.79326 -5.94695 1.58710 -5.60460 5.87560 6.60231 3.19509 -6.97781 9.06033 -0.59303 7.76475 -6.80912 1.29638 11.30932 10.57676 -10.68709 -0.94119 -3.86162 -9.92433 0.97610 -10.02383 3.16033
w_46_3 6.66276 6.84309 9.08680 7.45253 -7.85656 -0.90138 8.02879 -4.62282 -1.98231 3.10663 -10.46508 -0.91795 -10.10585 -5.00575 6.94681 5.35786 10.07627 6.39583 -7.03921 8.68334 0.98401 8.38274 8.24607 6.17565 -2.52456 2.08197 -1.49096 5.12262 0.41848 -6.08318
w_47_0 -7.35046 0.62964 -6.85293 -5.72481 -5.40338 8.50541 3.06660 0.86277 -8.94782 5.93345 -2.85592 7.49903 -4.95655 -9.66700 7.44243 -6.21639 -2.00323 -2.17314 -10.35793 6.93006 6.96176 9.11373 -2.75862 9.77018 -1.69092 0.49982 -9.85968 7.63207 -3.13455 -4.19968
w_48_0 -8.03388 2.89968 -9.35164 -5.34624 -4.04143 7.11244 5.09499 0.37661 -7.93035 5.77527 -2.07110 6.12805 -4.73034 -9.68747 7.95981 -6.19212 -1.86447 -5.87403 -9.33003 7.39959 5.85532 9.76327 -2.79969 10.07991 0.17311 3.57212 -8.36487 7.98241 -4.06137 -3.56225
w_49_2 -6.65578 -6.59508 6.63895 -2.10831 3.66417 -2.88928 -6.51357 -0.71483 -3.85281 -4.84475 3.36838 -3.71147 6.70098 4.20447 3.30735 -7.64011 7.30252 -2.11387 8.51590 -5.25034 1.66935 7.56366 11.76650 -10.70383 0.70374 -4.08834 -8.82721 2.72384 -9.61210 4.16980
w_50_0 -8.87101 0.42105 -6.85360 -4.00862 -4.02863 7.94933 3.85842 -0.08096 -9.53421 4.71652 -1.36184 6.15066 -6.65450 -7.03141 7.72198 -6.57364 -3.43757 -4.54957 -8.81733 6.18531 6.50349 8.40982 -1.73699 8.04137 -0.54596 4.07331 -9.85369 7.46958 -3.13065 -4.59608
w_51_2 -3.67720 -5.33122 5.58301 -5.59950 3.97518 -3.03467 -7.63924 -3.90103 -2.73558 -5.13276 2.08007 -6.33145 5.09799 4.42350 4.41831 -8.87223 10.26959 -0.80826 8.27782 -6.64588 1.36649 8.26119 10.36783 -9.06322 -0.32906 -3.39085 -8.18248 1.24180 -8.76366 2.12567
w_52_3 6.34510 8.41295 9.72462 5.29724 -6.09019 0.47468 8.67892 -5.14642 0.26807 2.42245 -5.88615 -1.23656 -8.04515 -4.18451 4.72235 3.89544 9.50119 6.37633 -5.48994 6.67293 1.46061 4.79986 7.69881 7.67327 -2.17950 1.30146 -0.24553 2.27775 -1.83092 -7.05470
w_53_0 -7.56427 3.11132 -7.27429 -5.56779 -2.40327 8.17906 1.21261 -0.69587 -9.28989 4.60973 -2.28798 6.86487 -2.89608 -9.89375 7.26546 -5.60480 -1.69492 -4.90171 -7.99932 6.90119 9.01768 9.81411 -2.99299 7.59261 -1.18278 2.64484 -8.77367 8.28762 -3.80491 -4.56000
w_54_2 -5.58059 -6.07116 5.03371 -3.00501 3.85184 -3.00252 -5.81598 -2.86298 -3.77247 -5.41190 3.45064 -5.54423 5.20099 4.55852 2.48495 -9.15504 8.20295 -0.79634 8.95094 -7.24121 2.40711 10.42788 9.34691 -9.63434 1.50538 -3.67171 -7.58400 0.78209 -9.52174 2.32386
w_55_0 -7.62229 1.26545 -7.48014 -6.08175 -3.72793 7.86544 1.70808 -0.40776 -9.80396 5.31140 -0.32702 5.68115 -4.95135 -9.30898 6.74309 -5.42331 -2.35918 -2.87510 -8.65870 7.48736 8.06922 10.18555 -3.02416 9.54739 -0.36633 3.21034 -6.84881 7.80532 -4.54932 -5.36171
w_56_2 -8.05840 -6.09637 6.21598 -4.21450 4.69808 -2.84122 -6.91128 -3.00089 -3.15174 -5.13239 0.50339 -6.36907 5.80006 3.55341 5.05216 -7.63473 8.20533 -0.30382 9.47918 -8.60404 2.09533 9.57286 11.86010 -10.49472 0.12830 -3.54869 -9.65970 0.33480 -10.31949 3.12980
w_57_0 -6.83259 3.26504 -8.45910 -5.62443 -3.16790 6.89909 3.65199 2.28542 -9.62488 4.88787 -2.23438 3.97695 -5.75767 -9.08494 6.86291 -4.79576 -0.83075 -4.38377 -7.41135 6.32753 7.26916 9.02094 -3.65316 8.29405 -2.74965 4.19148 -7.00232 8.83967 -4.35796 -4.06079
w_58_3 7.97601 6.74105 8.11487 5.97724 -6.09397 -1.90720 6.72422 -5.69059 -2.22092 3.13989 -8.69374 -0.79291 -10.71156 -3.84384 6.92426 3.96308 8.63771 3.91632 -4.98711 9.86688 3.31841 7.14035 9.27261 8.79776 -1.56118 4.99193 -1.81460 3.54939 0.98110 -9.77426
w_59_3 8.64041 10.35660 7.43546 4.78909 -6.00375 -1.97269 6.26505 -3.72832 -0.03680 4.57714 -6.45114 -0.28253 -8.23164 -2.24079 5.35449 3.43227 8.14748 4.88793 -6.19469 6.82402 2.71366 5.78005 8.42604 8.55129 -1.60765 1.66394 -2.63582 3.32161 -0.17959 -8.12893
w_60_1 -10.72662 0.65846 -1.35301 1.57165 8.77272 9.81543 8.78189 0.50331 -8.15841 -5.15908 9.33690 -2.04805 7.73391 2.47853 2.16009 -3.14900 9.88082 -6.91005 -2.10386 10.07127 4.56970 -0.07889 0.12251 -1.41931 5.39711 -0.21043 2.11189 3.97445 2.49658 0.59772
w_61_1 -10.24263 2.49778 -1.37383 2.79114 9.18121 9.86737 7.44543 0.48213 -8.47582 -5.85570 9.89178 -3.20152 6.89255 3.68577 3.10252 -4.83437 7.95597 -5.03821 -0.95362 7.63845 4.59445 -1.57762 1.41605 -1.13301 3.76552 -2.30772 3.53210 4.66521 1.46060 0.76211
w_62_3 8.58587 7.69142 9.90151 4.22545 -4.24735 -0.16115 7.77719 -3.51629 -2.53620 2.19013 -9.29879 -1.24774 -9.27442 -3.63149 5.39780 4.75521 9.49327 4.68189 -6.86819 7.79462 -0.16602 7.32271 9.74904 6.51451 -3.28816 2.40750 -0.01241 4.18583 0.03328 -4.99539
w_63_0 -7.38069 2.42306 -6.70085 -4.62599 -6.41829 6.90055 3.59021 -0.82104 -7.96924 4.27279 -0.98527 4.94675 -5.03122 -8.80929 6.80713 -6.39762 -1.45015 -3.42526 -8.79772 7.90921 7.44367 9.05834 -3.77250 10.07961 -1.01625 2.49296 -10.05713 9.54732 -3.86030 -5.57105
w_64_3 6.16033 4.89438 8.51682 4.70319 -6.97986 -0.49293 8.02351 -4.54521 -0.47177 2.76217 -6.08294 0.25430 -7.84348 -3.74123 7.23731 5.12926 8.89916 8.04335 -6.01454 8.82031 0.05619 5.53180 8.86856 8.09810 -2.89035 1.48392 -3.43144 3.01806 -0.21459 -7.14912
w_65_3 7.57395 8.62672 10.06459 5.42929 -5.29258 -0.20400 8.21260 -4.50640 -1.97977 3.38239 -7.54615 0.77927 -9.18513 -2.60150 3.51875 4.40310 10.51185 4.73201 -7.10879 9.53343 0.58725 7.73732 10.02024 7.94187 -2.39984 3.60253 -1.49651 5.72856 2.34803 -9.07729
w_66_0 -7.96222 0.28183 -6.35608 -5.00150 -2.62798 5.43967 3.65078 0.44476 -8.87951 4.76178 -2.43266 5.18288 -5.41893 -10.22650 7.16629 -3.62663 -1.03119 -2.71959 -8.13262 7.51214 6.93314 8.40953 -3.17577 10.17827 -1.69183 3.34362 -7.52645 7.53203 -3.58089 -5.80245
w_67_3 7.67017 8.09965 7.40687 4.91676 -4.65006 -2.55376 8.12768 -4.17998 -1.74413 3.27965 -6.27289 0.05597 -9.50448 -3.98867 7.13748 5.55652 10.05446 5.85733 -6.28863 8.99494 0.39201 7.03258 7.84947 6.28939 -3.19931 1.48919 -1.09680 5.27975 0.48805 -8.40136
w_68_0 -7.54028 2.60983 -7.51434 -4.84001 -3.95445 7.55328 4.31416 2.26524 -8.47255 5.14138 -0.11785 5.98671 -5.08166 -10.68345 7.66542 -4.89775 -0.77332 -3.78065 -6.13346 7.75906 5.92280 9.83224 -2.29738 10.43519 -1.02871 2.56989 -8.02403 7.40841 -5.78303 -5.59031
w_69_2 -5.82491 -6.27785 5.90450 -4.29668 2.69003 -3.00533 -7.27865 -2.47622 -4.03457 -4.10170 1.16051 -4.83633 5.59853 4.01113 3.31009 -8.66957 8.63932 0.11553 9.17934 -6.06744 2.84878 9.75326 9.51895 -8.69690 -0.86094 -4.01401 -8.51044 1.42294 -10.25282 3.58350
w_70_0 -8.04154 1.62488 -6.69283 -4.64008 -2.95129 7.12678 3.81571 0.17680 -9.84334 5.36819 -2.22019 5.19377 -4.91599 -7.45521 7.07808 -5.56331 -1.13994 -2.54617 -8.07703 6.49812 7.84007 8.78576 -0.19984 8.29983 -0.27818 2.51858 -7.04160 5.53887 -4.77856 -6.56821
w_71_3 6.80673 7.04874 8.73465 4.83959 -5.53282 -1.22169 8.00305 -4.69145 -1.10957 2.83782 -8.81935 0.19211 -10.36533 -3.21042 4.90390 5.76708 7.56045 3.89058 -4.70251 8.73386 1.11795 8.08024 9.25269 5.65450 -2.46419 2.27856 -1.52015 3.36795 0.75799 -7.74724
w_72_1 -9.69626 1.85269 0.08727 2.08730 9.98987 7.79117 8.48816 1.25578 -8.65298 -5.19642 8.67033 -2.73029 7.36941 2.43876 1.45800 -5.73166 10.12808 -5.07895 -1.39508 10.41356 5.33092 0.09171 1.51021 -1.60074 3.33438 -2.74347 3.80435 2.75739 3.02457 0.76573
w_73_1 -9.63492 0.34333 -0.64372 1.79623 10.06687 8.40092 8.61609 -0.04872 -6.74658 -6.06032 9.37720 -0.97633 9.44034 1.47227 2.82377 -4.85931 7.06155 -7.48491 0.23624 9.92821 6.14547 -0.25778 0.27489 -1.49181 4.99966 -1.57929 4.16548 2.69386 3.27496 1.46275
w_74_2 -5.58860 -4.01860 3.42581 -5.55219 2.89912 -3.97029 -8.04671 -2.93999 -3.13190 -4.80340 2.58368 -3.78366 4.72166 3.55428 4.12981 -6.97408 9.27316 -1.54814 7.66988 -6.56850 1.25431 7.76378 10.27154 -8.36598 -0.12979 -5.08244 -7.61529 0.68843 -10.01730 2.97937
w_75_0 -6.30665 2.58929 -4.61870 -5.02687 -3.86412 5.68566 2.00743 1.73006 -8.77079 4.58527 -2.32538 5.15334 -5.07795 -8.73881 5.31529 -4.85423 -3.92745 -3.34109 -8.51144 7.15657 6.33028 11.12278 -1.57437 9.72518 -1.26377 3.31924 -7.46430 9.24426 -2.63975 -4.80029
w_76_2 -7.86845 -5.18805 5.31673 -1.89555 3.77644 -3.75791 -6.09554 -0.22164 -5.02806 -6.20296 1.22351 -4.42640 3.76768 4.43830 1.95945 -7.72981 9.26857 -0.77334 7.96670 -5.31224 0.97344 9.89204 11.40144 -8.13145 -1.47210 -4.11309 -9.15320 1.30707 -8.97048 -0.94918
w_77_1 -10.57888 -0.59941 -1.39650 1.70080 9.92499 8.92466 9.20363 -0.30648 -8.30494 -7.08542 9.44675 -1.56282 7.64177 2.63593 1.53499 -4.74188 6.85890 -4.28798 -1.44545 8.64233 5.83455 -1.35314 1.28883 -0.78069 4.97045 -2.51459 3.83419 2.55846 0.84790 1.37628
w_78_3 7.64810 8.13128 8.43088 3.75193 -5.85543 -2.24963 8.03886 -5.14216 -0.36146 2.31244 -8.82183 1.41464 -9.32112 -2.68171 4.94675 5.06463 7.81278 5.39848 -6.35772 6.56255 -0.71802 8.56569 7.28984 6.44548 -0.82141 2.73920 -1.25069 3.87457 1.16227 -7.69400
w_79_3 7.52541 7.32413 9.96120 5.09638 -5.89253 -2.22410 7.90581 -4.78899 -1.39043 1.88816 -6.67389 -0.04652 -9.75328 -2.39856 4.34829 2.92003 10.66964 6.64856 -5.03549 6.01953 1.43527 6.24056 8.07147 6.53543 -2.26231 0.44039 -1.74510 5.27916 -0.11675 -8.14427
w_80_2 -6.08332 -5.55998 5.98829 -6.09443 3.42044 -4.02225 -6.69247 -1.75990 -3.07414 -6.51508 0.31699 -6.14660 4.47941 4.36502 5.86491 -7.79324 7.55135 -0.33792 8.51179 -5.88077 1.24667 9.17867 10.35991 -9.57546 1.35956 -3.52108 -8.61636 2.65229 -8.16349 2.70449
w_81_3 9.16995 9.58874 9.46741 6.80778 -6.08099 -1.67026 7.67004 -3.96201 -1.88666 1.31479 -9.11789 0.44574 -9.27284 -3.16417 3.50535 3.97322 8.93015 4.48616 -5.23070 7.25336 1.83980 7.83510 8.91431 6.99614 -3.41819 1.99359 0.60488 1.30909 0.45279 -7.62202
w_82_1 -10.29745 0.22184 -0.43517 1.97620 11.03470 7.89692 8.55053 0.28712 -6.63300 -6.15741 9.83356 -1.48054 8.73941 3.38292 0.81957 -4.04976 8.25054 -6.07222 -2.21344 9.88523 4.83445 -0.11289 1.00116 -0.93788 2.74590 -1.71657 1.93107 4.87568 4.71384 -0.30709
w_83_1 -10.02838 2.22296 0.32274 2.83750 10.80296 8.30863 9.21513 1.42699 -9.67297 -4.52628 10.02555 -0.96163 6.88196 4.49797 0.37806 -4.61940 7.77236 -5.02444 -3.10150 9.93652 4.71702 -1.44007 0.36777 -1.56142 3.45841 -2.28624 1.49933 2.93874 1.49468 1.54539
w_84_3 6.88702 9.07503 7.22528 5.22894 -6.36860 -1.45247 8.59888 -5.05566 -2.08476 2.44740 -8.69814 -0.92283 -9.71703 -3.53663 4.00734 4.29995 6.65296 5.60621 -4.61567 10.06424 0.57384 5.07285 8.21297 7.02588 -3.19591 0.12753 0.35690 4.02231 -0.04679 -6.90844
w_85_2 -6.15881 -7.13617 5.47352 -3.89199 3.89045 -3.76267 -7.75340 -1.15236 -4.12674 -3.96081 2.45581 -4.86482 5.02710 4.62800 4.29125 -7.63061 8.06111 0.93582 8.38949 -6.01520 1.14048 8.39936 10.26400 -9.56258 -1.26806 -3.78690 -8.51171 2.44101 -10.78274 2.91205
w_86_2 -5.89881 -6.68442 6.12130 -4.36774 3.73054 -5.22597 -7.74060 -2.65687 -3.89594 -6.58264 2.24208 -5.52923 5.36845 2.62811 2.94629 -6.67586 8.65949 1.99269 6.78129 -5.99738 0.80184 9.23561 6.94109 -8.67805 0.24901 -2.84506 -8.15161 1.72271 -10.57872 1.22399
w_87_1 -9.91219 1.68360 -0.38873 3.37953 8.45305 7.42869 7.54592 0.87332 -7.26286 -6.13210 8.64446 -1.74104 7.08988 3.48929 2.94225 -4.26384 7.84268 -7.16915 -2.81478 9.55621 3.20196 -0.07720 1.47013 0.01210 5.46170 -1.71083 4.07182 5.39358 1.76211 1.09558
w_88_1 -8.41108 1.34528 -2.05070 4.17649 11.75136 9.29656 8.90731 2.18948 -8.42910 -5.37567 9.35769 -1.89432 4.74368 2.24839 3.08462 -3.55014 7.72680 -5.21377 -2.20059 9.68000 4.03415 -1.16710 1.82248 -1.05365 5.12073 -2.49125 2.96175 4.05659 1.51920 0.25183
w_89_0 -7.45118 3.13118 -8.31921 -6.79745 -2.31505 5.68542 1.26425 2.31338 -10.02211 2.98090 -1.00476 5.98149 -5.23611 -9.05946 7.30312 -5.22737 -2.46197 -3.46812 -8.47236 4.45723 5.52201 8.40430 -2.52185 9.50800 0.74218 2.16089 -8.08444 8.46145 -3.03416 -4.96732
w_90_3 8.39396 7.85121 9.29179 6.03310 -6.07813 -0.95905 10.14521 -5.85154 -2.28160 2.10458 -6.85722 -3.05363 -8.19053 -3.46248 4.80043 3.05625 9.17138 5.71026 -6.21635 9.37000 1.47627 6.34224 7.83234 6.83394 -2.01577 1.39164 -2.23078 4.51655 -0.34386 -9.22157
w_91_1 -8.42466 0.64758 0.40032 2.69095 10.13560 8.35616 5.82597 2.21939 -7.24240 -7.07897 8.82881 -1.82123 8.22949 4.65957 3.72440 -3.63805 6.85003 -5.10184 -1.43983 9.77043 4.62710 -0.16174 2.02009 -1.75332 2.63397 -3.72979 1.92958 4.06332 2.63634 1.53794
w_92_3 8.87311 8.55552 9.72983 4.80606 -6.63009 -1.33885 8.40577 -5.71114 -0.09526 -0.43604 -8.05031 0.48240 -10.61232 -3.61859 6.01541 2.82479 7.69985 5.71422 -6.34318 7.67862 1.80699 6.96829 9.49300 7.12829 -1.98390 4.01729 -2.24108 4.32168 -3.42107 -6.49543
w_93_2 -2.77973 -6.67192 6.13700 -3.19321 1.74772 -4.06892 -5.33729 -2.74247 -4.92724 -4.65517 1.65768 -6.00443 5.03699 4.02561 1.83014 -9.28213 7.97275 0.97414 7.58574 -5.06152 1.80394 8.65022 9.98595 -8.65699 -0.66516 -4.22232 -9.69274 0.73888 -11.02069 3.15781
w_94_1 -7.83754 1.32373 -0.30085 3.84801 8.45545 7.09890 7.64021 -0.67118 -7.14566 -6.20838 8.54015 -3.75723 6.27090 4.90692 4.54003 -2.72305 8.19701 -7.06040 -2.59083 10.62752 7.04147 -0.30266 1.21116 -1.63198 3.30796 -3.43616 2.72388 3.96252 1.14363 2.51358
w_95_3 6.90708 9.58817 10.00285 5.29806 -6.02125 -0.61401 8.02771 -4.24386 -1.74372 1.44180 -10.16225 -1.52233 -9.80476 -2.87811 6.24076 5.07663 9.71379 5.05861 -5.81308 7.11221 2.12204 6.61995 8.57293 6.81296 -0.51183 2.24367 -0.33197 4.62001 -1.32402 -8.33275
w_96_0 -9.65900 3.20432 -5.48215 -4.52446 -3.96820 8.01532 3.37629 -0.22012 -10.78051 4.44134 -2.07991 3.46001 -2.00204 -9.30774 8.62867 -5.55486 -0.63317 -1.46219 -9.01508 6.51966 7.57220 10.40746 -2.07688 8.92491 -2.48601 3.48197 -9.38004 7.94380 -2.82808 -4.37011
w_97_0 -8.83066 2.65911 -5.56357 -5.99086 -3.72542 8.30533 3.05735 0.97169 -11.44221 5.22476 -3.29981 5.85552 -4.95275 -10.07237 8.30822 -5.19537 -1.71018 -3.32070 -9.43161 5.11378 8.39487 10.08722 -0.24329 8.92507 -1.91541 2.92903 -8.91927 7.83447 -5.36319 -6.21454
w_98_1 -10.22474 0.73725 1.13588 3.61624 9.93131 6.58949 10.03100 -1.48902 -8.41996 -5.70221 11.42250 -1.13666 6.89853 2.44387 4.31359 -4.94993 9.82640 -5.11249 -1.67979 10.52210 5.89010 -0.42326 -0.58902 -0.67591 2.21183 -1.84577 2.47725 3.44957 1.49739 0.32194
w_99_3 8.33740 7.72120 9.84725 4.02197 -4.29137 0.29234 7.46719 -5.06542 -2.36527 2.18973 -7.91336 -1.74394 -7.60414 -4.43793 5.30660 4.27143 9.62890 5.58211 -3.99646 8.10420 -0.40716 5.64371 7.33830 5.40109 -1.91123 0.61282 -0.25916 3.07158 -0.07626 -8.18293
